<?xml version="1.0"?>
<opencv_storage>
<haarcascade_3_1 type_id="opencv-haar-classifier">
  <size>
    20 10</size>
  <stages>
    <_>
      <!-- stage 0 -->
      <trees>
        <_>
          <!-- tree 0 -->
          <_>
            <!-- root node -->
            <feature>
              <rects>
                <_>
                  2 1 18 9 -1.</_>
                <_>
                  8 4 6 3 9.</_></rects>
              <tilted>0</tilted></feature>
            <threshold>-7.4312168359756470e-01</threshold>
            <left_node>1</left_node>
            <right_val>-7.1600347757339478e-01</right_val></_>
          <_>
            <!-- node 1 -->
            <feature>
              <rects>
                <_>
                  3 1 16 8 -1.</_>
                <_>
                  3 3 16 4 2.</_></rects>
              <tilted>0</tilted></feature>
            <threshold>-6.1756070703268051e-02</threshold>
            <left_val>7.9937607049942017e-01</left_val>
            <right_val>-8.0106770992279053e-01</right_val></_></_>
        <_>
          <!-- tree 1 -->
          <_>
            <!-- root node -->
            <feature>
              <rects>
                <_>
                  0 2 20 8 -1.</_>
                <_>
                  5 2 10 8 2.</_></rects>
              <tilted>0</tilted></feature>
            <threshold>-3.7847879528999329e-01</threshold>
            <left_val>4.7358399629592896e-01</left_val>
            <right_node>1</right_node></_>
          <_>
            <!-- node 1 -->
            <feature>
              <rects>
                <_>
                  9 3 9 4 -1.</_>
                <_>
                  12 3 3 4 3.</_></rects>
              <tilted>0</tilted></feature>
            <threshold>9.5660783350467682e-02</threshold>
            <left_val>-6.5676838159561157e-01</left_val>
            <right_val>5.0309222936630249e-01</right_val></_></_>
        <_>
          <!-- tree 2 -->
          <_>
            <!-- root node -->
            <feature>
              <rects>
                <_>
                  4 7 2 2 -1.</_>
                <_>
                  4 8 2 1 2.</_></rects>
              <tilted>0</tilted></feature>
            <threshold>1.9231610349379480e-04</threshold>
            <left_val>-5.9564191102981567e-01</left_val>
            <right_node>1</right_node></_>
          <_>
            <!-- node 1 -->
            <feature>
              <rects>
                <_>
                  11 0 8 6 -1.</_>
                <_>
                  11 3 8 3 2.</_></rects>
              <tilted>0</tilted></feature>
            <threshold>4.0794401429593563e-03</threshold>
            <left_val>3.9630961418151855e-01</left_val>
            <right_val>-7.0382338762283325e-01</right_val></_></_>
        <_>
          <!-- tree 3 -->
          <_>
            <!-- root node -->
            <feature>
              <rects>
                <_>
                  7 6 8 2 -1.</_>
                <_>
                  9 6 4 2 2.</_></rects>
              <tilted>0</tilted></feature>
            <threshold>-1.5611030161380768e-02</threshold>
            <left_node>1</left_node>
            <right_val>-3.4597828984260559e-01</right_val></_>
          <_>
            <!-- node 1 -->
            <feature>
              <rects>
                <_>
                  17 7 2 2 -1.</_>
                <_>
                  17 8 2 1 2.</_></rects>
              <tilted>0</tilted></feature>
            <threshold>1.6736619872972369e-03</threshold>
            <left_val>-2.2907349467277527e-01</left_val>
            <right_val>6.2055879831314087e-01</right_val></_></_></trees>
      <stage_threshold>-1.3478549718856812e+00</stage_threshold>
      <parent>-1</parent>
      <next>-1</next></_>
    <_>
      <!-- stage 1 -->
      <trees>
        <_>
          <!-- tree 0 -->
          <_>
            <!-- root node -->
            <feature>
              <rects>
                <_>
                  2 1 18 9 -1.</_>
                <_>
                  8 4 6 3 9.</_></rects>
              <tilted>0</tilted></feature>
            <threshold>-8.2007390260696411e-01</threshold>
            <left_node>1</left_node>
            <right_val>-6.1138898134231567e-01</right_val></_>
          <_>
            <!-- node 1 -->
            <feature>
              <rects>
                <_>
                  1 1 18 8 -1.</_>
                <_>
                  1 3 18 4 2.</_></rects>
              <tilted>0</tilted></feature>
            <threshold>-1.0496120154857635e-01</threshold>
            <left_val>7.4644988775253296e-01</left_val>
            <right_val>-6.1743378639221191e-01</right_val></_></_>
        <_>
          <!-- tree 1 -->
          <_>
            <!-- root node -->
            <feature>
              <rects>
                <_>
                  5 4 12 6 -1.</_>
                <_>
                  9 4 4 6 3.</_></rects>
              <tilted>0</tilted></feature>
            <threshold>-9.6913978457450867e-02</threshold>
            <left_node>1</left_node>
            <right_val>-4.4803500175476074e-01</right_val></_>
          <_>
            <!-- node 1 -->
            <feature>
              <rects>
                <_>
                  9 0 1 9 -1.</_>
                <_>
                  6 3 1 3 3.</_></rects>
              <tilted>1</tilted></feature>
            <threshold>-2.8041809797286987e-02</threshold>
            <left_val>6.2993597984313965e-01</left_val>
            <right_val>-2.7244681119918823e-01</right_val></_></_>
        <_>
          <!-- tree 2 -->
          <_>
            <!-- root node -->
            <feature>
              <rects>
                <_>
                  3 8 2 2 -1.</_>
                <_>
                  3 9 2 1 2.</_></rects>
              <tilted>0</tilted></feature>
            <threshold>1.3987200509291142e-04</threshold>
            <left_node>1</left_node>
            <right_val>2.0890599489212036e-01</right_val></_>
          <_>
            <!-- node 1 -->
            <feature>
              <rects>
                <_>
                  9 0 4 4 -1.</_>
                <_>
                  9 2 4 2 2.</_></rects>
              <tilted>0</tilted></feature>
            <threshold>-8.4994077682495117e-02</threshold>
            <left_val>5.4071861505508423e-01</left_val>
            <right_val>-6.7459058761596680e-01</right_val></_></_>
        <_>
          <!-- tree 3 -->
          <_>
            <!-- root node -->
            <feature>
              <rects>
                <_>
                  17 8 1 2 -1.</_>
                <_>
                  17 9 1 1 2.</_></rects>
              <tilted>0</tilted></feature>
            <threshold>2.1210790146142244e-04</threshold>
            <left_val>-3.2329741120338440e-01</left_val>
            <right_node>1</right_node></_>
          <_>
            <!-- node 1 -->
            <feature>
              <rects>
                <_>
                  13 2 2 8 -1.</_>
                <_>
                  13 6 2 4 2.</_></rects>
              <tilted>0</tilted></feature>
            <threshold>4.8286639153957367e-02</threshold>
            <left_val>4.1987270116806030e-01</left_val>
            <right_val>-6.0629552602767944e-01</right_val></_></_>
        <_>
          <!-- tree 4 -->
          <_>
            <!-- root node -->
            <feature>
              <rects>
                <_>
                  13 2 2 2 -1.</_>
                <_>
                  13 2 1 1 2.</_>
                <_>
                  14 3 1 1 2.</_></rects>
              <tilted>0</tilted></feature>
            <threshold>1.6026510274969041e-04</threshold>
            <left_node>1</left_node>
            <right_val>2.5653529167175293e-01</right_val></_>
          <_>
            <!-- node 1 -->
            <feature>
              <rects>
                <_>
                  10 0 1 6 -1.</_>
                <_>
                  10 2 1 2 3.</_></rects>
              <tilted>0</tilted></feature>
            <threshold>-2.1679790224879980e-03</threshold>
            <left_val>3.0592670664191246e-03</left_val>
            <right_val>-7.6875972747802734e-01</right_val></_></_>
        <_>
          <!-- tree 5 -->
          <_>
            <!-- root node -->
            <feature>
              <rects>
                <_>
                  3 0 3 4 -1.</_>
                <_>
                  3 1 3 2 2.</_></rects>
              <tilted>0</tilted></feature>
            <threshold>-4.8931450583040714e-03</threshold>
            <left_val>-5.8236122131347656e-01</left_val>
            <right_node>1</right_node></_>
          <_>
            <!-- node 1 -->
            <feature>
              <rects>
                <_>
                  0 0 20 10 -1.</_>
                <_>
                  0 5 20 5 2.</_></rects>
              <tilted>0</tilted></feature>
            <threshold>-7.0475858449935913e-01</threshold>
            <left_val>-8.7489598989486694e-01</left_val>
            <right_val>2.1450319886207581e-01</right_val></_></_>
        <_>
          <!-- tree 6 -->
          <_>
            <!-- root node -->
            <feature>
              <rects>
                <_>
                  8 2 1 4 -1.</_>
                <_>
                  8 2 1 2 2.</_></rects>
              <tilted>1</tilted></feature>
            <threshold>-1.1066840030252934e-02</threshold>
            <left_val>-6.5309572219848633e-01</left_val>
            <right_node>1</right_node></_>
          <_>
            <!-- node 1 -->
            <feature>
              <rects>
                <_>
                  1 3 1 2 -1.</_>
                <_>
                  1 4 1 1 2.</_></rects>
              <tilted>0</tilted></feature>
            <threshold>1.4275830471888185e-04</threshold>
            <left_val>-1.4654180407524109e-01</left_val>
            <right_val>4.1907578706741333e-01</right_val></_></_>
        <_>
          <!-- tree 7 -->
          <_>
            <!-- root node -->
            <feature>
              <rects>
                <_>
                  14 2 6 6 -1.</_>
                <_>
                  16 4 2 2 9.</_></rects>
              <tilted>0</tilted></feature>
            <threshold>-1.2016399949789047e-01</threshold>
            <left_val>5.1614177227020264e-01</left_val>
            <right_node>1</right_node></_>
          <_>
            <!-- node 1 -->
            <feature>
              <rects>
                <_>
                  0 6 17 3 -1.</_>
                <_>
                  0 7 17 1 3.</_></rects>
              <tilted>0</tilted></feature>
            <threshold>8.4391310811042786e-03</threshold>
            <left_val>-5.0512481480836868e-02</left_val>
            <right_val>-8.2231527566909790e-01</right_val></_></_></trees>
      <stage_threshold>-1.2166739702224731e+00</stage_threshold>
      <parent>0</parent>
      <next>-1</next></_>
    <_>
      <!-- stage 2 -->
      <trees>
        <_>
          <!-- tree 0 -->
          <_>
            <!-- root node -->
            <feature>
              <rects>
                <_>
                  2 3 18 7 -1.</_>
                <_>
                  8 3 6 7 3.</_></rects>
              <tilted>0</tilted></feature>
            <threshold>-3.6793550848960876e-01</threshold>
            <left_node>1</left_node>
            <right_val>-6.7268878221511841e-01</right_val></_>
          <_>
            <!-- node 1 -->
            <feature>
              <rects>
                <_>
                  2 1 18 9 -1.</_>
                <_>
                  2 4 18 3 3.</_></rects>
              <tilted>0</tilted></feature>
            <threshold>-1.8758089840412140e-01</threshold>
            <left_val>6.2020629644393921e-01</left_val>
            <right_val>-5.5811142921447754e-01</right_val></_></_>
        <_>
          <!-- tree 1 -->
          <_>
            <!-- root node -->
            <feature>
              <rects>
                <_>
                  2 4 6 3 -1.</_>
                <_>
                  4 4 2 3 3.</_></rects>
              <tilted>0</tilted></feature>
            <threshold>-1.3835149817168713e-02</threshold>
            <left_node>1</left_node>
            <right_val>-3.3970910310745239e-01</right_val></_>
          <_>
            <!-- node 1 -->
            <feature>
              <rects>
                <_>
                  5 0 12 9 -1.</_>
                <_>
                  9 3 4 3 9.</_></rects>
              <tilted>0</tilted></feature>
            <threshold>-3.9649900794029236e-01</threshold>
            <left_val>5.7528471946716309e-01</left_val>
            <right_val>-1.6356560587882996e-01</right_val></_></_>
        <_>
          <!-- tree 2 -->
          <_>
            <!-- root node -->
            <feature>
              <rects>
                <_>
                  6 0 11 10 -1.</_>
                <_>
                  6 5 11 5 2.</_></rects>
              <tilted>0</tilted></feature>
            <threshold>5.7553850114345551e-02</threshold>
            <left_node>1</left_node>
            <right_val>-4.3376749753952026e-01</right_val></_>
          <_>
            <!-- node 1 -->
            <feature>
              <rects>
                <_>
                  8 8 12 2 -1.</_>
                <_>
                  8 9 12 1 2.</_></rects>
              <tilted>0</tilted></feature>
            <threshold>7.7236481010913849e-03</threshold>
            <left_val>-2.2734190523624420e-01</left_val>
            <right_val>3.5505300760269165e-01</right_val></_></_>
        <_>
          <!-- tree 3 -->
          <_>
            <!-- root node -->
            <feature>
              <rects>
                <_>
                  5 4 5 6 -1.</_>
                <_>
                  5 7 5 3 2.</_></rects>
              <tilted>0</tilted></feature>
            <threshold>-4.1904110461473465e-02</threshold>
            <left_val>-9.6834808588027954e-01</left_val>
            <right_node>1</right_node></_>
          <_>
            <!-- node 1 -->
            <feature>
              <rects>
                <_>
                  1 0 5 2 -1.</_>
                <_>
                  1 1 5 1 2.</_></rects>
              <tilted>0</tilted></feature>
            <threshold>-1.5180110000073910e-02</threshold>
            <left_val>-4.8274230957031250e-01</left_val>
            <right_val>2.0790569484233856e-01</right_val></_></_>
        <_>
          <!-- tree 4 -->
          <_>
            <!-- root node -->
            <feature>
              <rects>
                <_>
                  12 3 2 3 -1.</_>
                <_>
                  13 3 1 3 2.</_></rects>
              <tilted>0</tilted></feature>
            <threshold>1.5281509840860963e-03</threshold>
            <left_val>-3.1897160410881042e-01</left_val>
            <right_node>1</right_node></_>
          <_>
            <!-- node 1 -->
            <feature>
              <rects>
                <_>
                  15 0 1 2 -1.</_>
                <_>
                  15 1 1 1 2.</_></rects>
              <tilted>0</tilted></feature>
            <threshold>-2.4437901447527111e-04</threshold>
            <left_val>4.0121281147003174e-01</left_val>
            <right_val>-2.0745180547237396e-01</right_val></_></_>
        <_>
          <!-- tree 5 -->
          <_>
            <!-- root node -->
            <feature>
              <rects>
                <_>
                  0 4 20 5 -1.</_>
                <_>
                  5 4 10 5 2.</_></rects>
              <tilted>0</tilted></feature>
            <threshold>2.3787340521812439e-01</threshold>
            <left_node>1</left_node>
            <right_val>7.6358807086944580e-01</right_val></_>
          <_>
            <!-- node 1 -->
            <feature>
              <rects>
                <_>
                  3 9 8 1 -1.</_>
                <_>
                  7 9 4 1 2.</_></rects>
              <tilted>0</tilted></feature>
            <threshold>8.9101241901516914e-03</threshold>
            <left_val>6.8644331768155098e-03</left_val>
            <right_val>-9.7687262296676636e-01</right_val></_></_>
        <_>
          <!-- tree 6 -->
          <_>
            <!-- root node -->
            <feature>
              <rects>
                <_>
                  0 6 3 3 -1.</_>
                <_>
                  0 7 3 1 3.</_></rects>
              <tilted>0</tilted></feature>
            <threshold>-1.3395999558269978e-02</threshold>
            <left_val>-7.3385560512542725e-01</left_val>
            <right_node>1</right_node></_>
          <_>
            <!-- node 1 -->
            <feature>
              <rects>
                <_>
                  0 6 4 3 -1.</_>
                <_>
                  0 7 4 1 3.</_></rects>
              <tilted>0</tilted></feature>
            <threshold>9.0306522324681282e-03</threshold>
            <left_val>1.3378310203552246e-01</left_val>
            <right_val>-6.2887352705001831e-01</right_val></_></_>
        <_>
          <!-- tree 7 -->
          <_>
            <!-- root node -->
            <feature>
              <rects>
                <_>
                  2 8 4 1 -1.</_>
                <_>
                  4 8 2 1 2.</_></rects>
              <tilted>0</tilted></feature>
            <threshold>-8.6334720253944397e-03</threshold>
            <left_node>1</left_node>
            <right_val>-2.0894330739974976e-01</right_val></_>
          <_>
            <!-- node 1 -->
            <feature>
              <rects>
                <_>
                  12 2 3 5 -1.</_>
                <_>
                  13 3 1 5 3.</_></rects>
              <tilted>1</tilted></feature>
            <threshold>-6.8471429403871298e-04</threshold>
            <left_val>4.2984130978584290e-01</left_val>
            <right_val>-5.1234942674636841e-01</right_val></_></_></trees>
      <stage_threshold>-1.3045239448547363e+00</stage_threshold>
      <parent>1</parent>
      <next>-1</next></_>
    <_>
      <!-- stage 3 -->
      <trees>
        <_>
          <!-- tree 0 -->
          <_>
            <!-- root node -->
            <feature>
              <rects>
                <_>
                  2 0 18 9 -1.</_>
                <_>
                  8 3 6 3 9.</_></rects>
              <tilted>0</tilted></feature>
            <threshold>-9.1094392538070679e-01</threshold>
            <left_node>1</left_node>
            <right_val>-4.5695081353187561e-01</right_val></_>
          <_>
            <!-- node 1 -->
            <feature>
              <rects>
                <_>
                  0 8 20 2 -1.</_>
                <_>
                  5 8 10 2 2.</_></rects>
              <tilted>0</tilted></feature>
            <threshold>-8.6339786648750305e-02</threshold>
            <left_val>5.7784098386764526e-01</left_val>
            <right_val>-4.2056539654731750e-01</right_val></_></_>
        <_>
          <!-- tree 1 -->
          <_>
            <!-- root node -->
            <feature>
              <rects>
                <_>
                  6 3 2 4 -1.</_>
                <_>
                  5 4 2 2 2.</_></rects>
              <tilted>1</tilted></feature>
            <threshold>-2.2574400529265404e-02</threshold>
            <left_val>4.2823821306228638e-01</left_val>
            <right_node>1</right_node></_>
          <_>
            <!-- node 1 -->
            <feature>
              <rects>
                <_>
                  9 0 8 2 -1.</_>
                <_>
                  9 0 8 1 2.</_></rects>
              <tilted>1</tilted></feature>
            <threshold>-4.8492089845240116e-03</threshold>
            <left_val>-7.0160841941833496e-01</left_val>
            <right_val>-6.6617220640182495e-02</right_val></_></_>
        <_>
          <!-- tree 2 -->
          <_>
            <!-- root node -->
            <feature>
              <rects>
                <_>
                  14 0 4 6 -1.</_>
                <_>
                  14 3 4 3 2.</_></rects>
              <tilted>0</tilted></feature>
            <threshold>2.5424240157008171e-02</threshold>
            <left_node>1</left_node>
            <right_val>-8.5708051919937134e-01</right_val></_>
          <_>
            <!-- node 1 -->
            <feature>
              <rects>
                <_>
                  17 7 1 2 -1.</_>
                <_>
                  17 8 1 1 2.</_></rects>
              <tilted>0</tilted></feature>
            <threshold>7.4881530599668622e-04</threshold>
            <left_val>-1.7010599374771118e-01</left_val>
            <right_val>3.3777329325675964e-01</right_val></_></_>
        <_>
          <!-- tree 3 -->
          <_>
            <!-- root node -->
            <feature>
              <rects>
                <_>
                  7 2 6 4 -1.</_>
                <_>
                  9 2 2 4 3.</_></rects>
              <tilted>0</tilted></feature>
            <threshold>7.6798588270321488e-04</threshold>
            <left_node>1</left_node>
            <right_val>-4.4287559390068054e-01</right_val></_>
          <_>
            <!-- node 1 -->
            <feature>
              <rects>
                <_>
                  1 0 3 3 -1.</_>
                <_>
                  1 1 3 1 3.</_></rects>
              <tilted>0</tilted></feature>
            <threshold>2.9630470089614391e-03</threshold>
            <left_val>2.5653448700904846e-01</left_val>
            <right_val>-3.4139719605445862e-01</right_val></_></_>
        <_>
          <!-- tree 4 -->
          <_>
            <!-- root node -->
            <feature>
              <rects>
                <_>
                  3 8 7 2 -1.</_>
                <_>
                  3 9 7 1 2.</_></rects>
              <tilted>0</tilted></feature>
            <threshold>1.8169760005548596e-03</threshold>
            <left_val>-3.9989259839057922e-01</left_val>
            <right_node>1</right_node></_>
          <_>
            <!-- node 1 -->
            <feature>
              <rects>
                <_>
                  5 0 6 4 -1.</_>
                <_>
                  8 0 3 4 2.</_></rects>
              <tilted>0</tilted></feature>
            <threshold>-1.8732800381258130e-03</threshold>
            <left_val>-7.8387007117271423e-02</left_val>
            <right_val>4.5010989904403687e-01</right_val></_></_>
        <_>
          <!-- tree 5 -->
          <_>
            <!-- root node -->
            <feature>
              <rects>
                <_>
                  9 4 6 3 -1.</_>
                <_>
                  11 4 2 3 3.</_></rects>
              <tilted>0</tilted></feature>
            <threshold>-1.1135979555547237e-02</threshold>
            <left_node>1</left_node>
            <right_val>-2.5788068771362305e-01</right_val></_>
          <_>
            <!-- node 1 -->
            <feature>
              <rects>
                <_>
                  0 7 3 3 -1.</_>
                <_>
                  0 8 3 1 3.</_></rects>
              <tilted>0</tilted></feature>
            <threshold>5.3124330006539822e-03</threshold>
            <left_val>3.1073069572448730e-01</left_val>
            <right_val>-3.8392511010169983e-01</right_val></_></_>
        <_>
          <!-- tree 6 -->
          <_>
            <!-- root node -->
            <feature>
              <rects>
                <_>
                  4 2 16 5 -1.</_>
                <_>
                  12 2 8 5 2.</_></rects>
              <tilted>0</tilted></feature>
            <threshold>3.7748500704765320e-01</threshold>
            <left_node>1</left_node>
            <right_val>-6.4418828487396240e-01</right_val></_>
          <_>
            <!-- node 1 -->
            <feature>
              <rects>
                <_>
                  6 5 7 2 -1.</_>
                <_>
                  6 6 7 1 2.</_></rects>
              <tilted>0</tilted></feature>
            <threshold>9.1729024425148964e-03</threshold>
            <left_val>1.7920890450477600e-01</left_val>
            <right_val>-4.1901418566703796e-01</right_val></_></_>
        <_>
          <!-- tree 7 -->
          <_>
            <!-- root node -->
            <feature>
              <rects>
                <_>
                  16 0 2 3 -1.</_>
                <_>
                  16 0 1 3 2.</_></rects>
              <tilted>1</tilted></feature>
            <threshold>2.3215230554342270e-02</threshold>
            <left_node>1</left_node>
            <right_val>-6.1984777450561523e-01</right_val></_>
          <_>
            <!-- node 1 -->
            <feature>
              <rects>
                <_>
                  10 5 3 5 -1.</_>
                <_>
                  11 5 1 5 3.</_></rects>
              <tilted>0</tilted></feature>
            <threshold>-1.5736509114503860e-02</threshold>
            <left_val>-8.6805421113967896e-01</left_val>
            <right_val>1.2144929915666580e-01</right_val></_></_>
        <_>
          <!-- tree 8 -->
          <_>
            <!-- root node -->
            <feature>
              <rects>
                <_>
                  0 0 10 4 -1.</_>
                <_>
                  0 2 10 2 2.</_></rects>
              <tilted>0</tilted></feature>
            <threshold>1.2420830316841602e-02</threshold>
            <left_val>6.0363959521055222e-02</left_val>
            <right_node>1</right_node></_>
          <_>
            <!-- node 1 -->
            <feature>
              <rects>
                <_>
                  0 8 20 2 -1.</_>
                <_>
                  0 9 20 1 2.</_></rects>
              <tilted>0</tilted></feature>
            <threshold>-1.3093589805066586e-02</threshold>
            <left_val>7.5273072719573975e-01</left_val>
            <right_val>-8.5406601428985596e-01</right_val></_></_>
        <_>
          <!-- tree 9 -->
          <_>
            <!-- root node -->
            <feature>
              <rects>
                <_>
                  5 6 1 2 -1.</_>
                <_>
                  5 7 1 1 2.</_></rects>
              <tilted>0</tilted></feature>
            <threshold>1.6722560394555330e-04</threshold>
            <left_node>1</left_node>
            <right_val>1.5224939584732056e-01</right_val></_>
          <_>
            <!-- node 1 -->
            <feature>
              <rects>
                <_>
                  2 8 4 2 -1.</_>
                <_>
                  2 9 4 1 2.</_></rects>
              <tilted>0</tilted></feature>
            <threshold>3.4707360900938511e-03</threshold>
            <left_val>-7.0075809955596924e-01</left_val>
            <right_val>-2.8204359114170074e-02</right_val></_></_>
        <_>
          <!-- tree 10 -->
          <_>
            <!-- root node -->
            <feature>
              <rects>
                <_>
                  8 0 1 3 -1.</_>
                <_>
                  7 1 1 1 3.</_></rects>
              <tilted>1</tilted></feature>
            <threshold>-1.0622070170938969e-02</threshold>
            <left_val>-8.2612210512161255e-01</left_val>
            <right_node>1</right_node></_>
          <_>
            <!-- node 1 -->
            <feature>
              <rects>
                <_>
                  10 2 8 6 -1.</_>
                <_>
                  12 2 4 6 2.</_></rects>
              <tilted>0</tilted></feature>
            <threshold>-3.7665460258722305e-03</threshold>
            <left_val>-1.5328000485897064e-01</left_val>
            <right_val>2.8804498910903931e-01</right_val></_></_></trees>
      <stage_threshold>-1.0439519882202148e+00</stage_threshold>
      <parent>2</parent>
      <next>-1</next></_>
    <_>
      <!-- stage 4 -->
      <trees>
        <_>
          <!-- tree 0 -->
          <_>
            <!-- root node -->
            <feature>
              <rects>
                <_>
                  2 0 18 9 -1.</_>
                <_>
                  8 3 6 3 9.</_></rects>
              <tilted>0</tilted></feature>
            <threshold>-1.0143539905548096e+00</threshold>
            <left_node>1</left_node>
            <right_val>-3.1936061382293701e-01</right_val></_>
          <_>
            <!-- node 1 -->
            <feature>
              <rects>
                <_>
                  3 2 3 5 -1.</_>
                <_>
                  4 2 1 5 3.</_></rects>
              <tilted>0</tilted></feature>
            <threshold>2.9586888849735260e-03</threshold>
            <left_val>5.2749329805374146e-01</left_val>
            <right_val>-3.3589899539947510e-01</right_val></_></_>
        <_>
          <!-- tree 1 -->
          <_>
            <!-- root node -->
            <feature>
              <rects>
                <_>
                  10 8 10 2 -1.</_>
                <_>
                  10 9 10 1 2.</_></rects>
              <tilted>0</tilted></feature>
            <threshold>8.1144329160451889e-03</threshold>
            <left_val>-3.1220000982284546e-01</left_val>
            <right_node>1</right_node></_>
          <_>
            <!-- node 1 -->
            <feature>
              <rects>
                <_>
                  1 4 16 5 -1.</_>
                <_>
                  5 4 8 5 2.</_></rects>
              <tilted>0</tilted></feature>
            <threshold>-9.1435313224792480e-02</threshold>
            <left_val>4.1839700937271118e-01</left_val>
            <right_val>-3.4817239642143250e-01</right_val></_></_>
        <_>
          <!-- tree 2 -->
          <_>
            <!-- root node -->
            <feature>
              <rects>
                <_>
                  2 0 10 1 -1.</_>
                <_>
                  7 0 5 1 2.</_></rects>
              <tilted>0</tilted></feature>
            <threshold>-2.6675879489630461e-03</threshold>
            <left_val>-2.5739109516143799e-01</left_val>
            <right_node>1</right_node></_>
          <_>
            <!-- node 1 -->
            <feature>
              <rects>
                <_>
                  12 4 6 6 -1.</_>
                <_>
                  12 4 3 3 2.</_>
                <_>
                  15 7 3 3 2.</_></rects>
              <tilted>0</tilted></feature>
            <threshold>-2.9140790924429893e-02</threshold>
            <left_val>-5.9696328639984131e-01</left_val>
            <right_val>3.6841109395027161e-01</right_val></_></_>
        <_>
          <!-- tree 3 -->
          <_>
            <!-- root node -->
            <feature>
              <rects>
                <_>
                  5 6 2 2 -1.</_>
                <_>
                  5 6 1 1 2.</_>
                <_>
                  6 7 1 1 2.</_></rects>
              <tilted>0</tilted></feature>
            <threshold>-7.8425902756862342e-05</threshold>
            <left_val>1.8976360559463501e-01</left_val>
            <right_node>1</right_node></_>
          <_>
            <!-- node 1 -->
            <feature>
              <rects>
                <_>
                  5 6 2 2 -1.</_>
                <_>
                  5 6 1 1 2.</_>
                <_>
                  6 7 1 1 2.</_></rects>
              <tilted>0</tilted></feature>
            <threshold>2.5129370624199510e-04</threshold>
            <left_val>-6.7080438137054443e-01</left_val>
            <right_val>-4.6532310545444489e-02</right_val></_></_>
        <_>
          <!-- tree 4 -->
          <_>
            <!-- root node -->
            <feature>
              <rects>
                <_>
                  4 5 3 4 -1.</_>
                <_>
                  5 5 1 4 3.</_></rects>
              <tilted>0</tilted></feature>
            <threshold>9.7798765636980534e-04</threshold>
            <left_node>1</left_node>
            <right_val>-3.1410759687423706e-01</right_val></_>
          <_>
            <!-- node 1 -->
            <feature>
              <rects>
                <_>
                  5 7 14 3 -1.</_>
                <_>
                  5 8 14 1 3.</_></rects>
              <tilted>0</tilted></feature>
            <threshold>-4.3786570429801941e-02</threshold>
            <left_val>-8.8222712278366089e-01</left_val>
            <right_val>1.8850730359554291e-01</right_val></_></_>
        <_>
          <!-- tree 5 -->
          <_>
            <!-- root node -->
            <feature>
              <rects>
                <_>
                  4 2 3 3 -1.</_>
                <_>
                  5 3 1 3 3.</_></rects>
              <tilted>1</tilted></feature>
            <threshold>-2.5123160332441330e-02</threshold>
            <left_val>3.5693010687828064e-01</left_val>
            <right_node>1</right_node></_>
          <_>
            <!-- node 1 -->
            <feature>
              <rects>
                <_>
                  13 3 2 2 -1.</_>
                <_>
                  13 4 2 1 2.</_></rects>
              <tilted>0</tilted></feature>
            <threshold>-3.4918270539492369e-03</threshold>
            <left_val>1.5060840547084808e-01</left_val>
            <right_val>-3.2749849557876587e-01</right_val></_></_>
        <_>
          <!-- tree 6 -->
          <_>
            <!-- root node -->
            <feature>
              <rects>
                <_>
                  15 6 2 3 -1.</_>
                <_>
                  15 7 2 1 3.</_></rects>
              <tilted>0</tilted></feature>
            <threshold>-8.5284793749451637e-03</threshold>
            <left_val>-5.8452630043029785e-01</left_val>
            <right_node>1</right_node></_>
          <_>
            <!-- node 1 -->
            <feature>
              <rects>
                <_>
                  1 3 16 5 -1.</_>
                <_>
                  5 3 8 5 2.</_></rects>
              <tilted>0</tilted></feature>
            <threshold>-2.4118219316005707e-01</threshold>
            <left_val>4.0788909792900085e-01</left_val>
            <right_val>-4.9536209553480148e-02</right_val></_></_>
        <_>
          <!-- tree 7 -->
          <_>
            <!-- root node -->
            <feature>
              <rects>
                <_>
                  3 8 3 2 -1.</_>
                <_>
                  4 8 1 2 3.</_></rects>
              <tilted>0</tilted></feature>
            <threshold>1.0043390095233917e-02</threshold>
            <left_node>1</left_node>
            <right_val>-9.2498350143432617e-01</right_val></_>
          <_>
            <!-- node 1 -->
            <feature>
              <rects>
                <_>
                  9 1 2 2 -1.</_>
                <_>
                  9 1 1 1 2.</_>
                <_>
                  10 2 1 1 2.</_></rects>
              <tilted>0</tilted></feature>
            <threshold>-4.5409440062940121e-03</threshold>
            <left_val>-8.4571158885955811e-01</left_val>
            <right_val>8.4881253540515900e-02</right_val></_></_>
        <_>
          <!-- tree 8 -->
          <_>
            <!-- root node -->
            <feature>
              <rects>
                <_>
                  16 0 1 6 -1.</_>
                <_>
                  16 3 1 3 2.</_></rects>
              <tilted>0</tilted></feature>
            <threshold>4.5796479098498821e-03</threshold>
            <left_node>1</left_node>
            <right_val>-5.5365747213363647e-01</right_val></_>
          <_>
            <!-- node 1 -->
            <feature>
              <rects>
                <_>
                  10 0 3 7 -1.</_>
                <_>
                  11 0 1 7 3.</_></rects>
              <tilted>0</tilted></feature>
            <threshold>9.8173171281814575e-03</threshold>
            <left_val>1.1287599802017212e-01</left_val>
            <right_val>-6.1829400062561035e-01</right_val></_></_>
        <_>
          <!-- tree 9 -->
          <_>
            <!-- root node -->
            <feature>
              <rects>
                <_>
                  2 9 15 1 -1.</_>
                <_>
                  7 9 5 1 3.</_></rects>
              <tilted>0</tilted></feature>
            <threshold>7.3186799883842468e-02</threshold>
            <left_node>1</left_node>
            <right_val>8.7393492460250854e-01</right_val></_>
          <_>
            <!-- node 1 -->
            <feature>
              <rects>
                <_>
                  11 4 4 3 -1.</_>
                <_>
                  12 4 2 3 2.</_></rects>
              <tilted>0</tilted></feature>
            <threshold>-7.1098888292908669e-03</threshold>
            <left_val>2.6649639010429382e-01</left_val>
            <right_val>-1.9432820379734039e-01</right_val></_></_>
        <_>
          <!-- tree 10 -->
          <_>
            <!-- root node -->
            <feature>
              <rects>
                <_>
                  9 5 4 5 -1.</_>
                <_>
                  10 5 2 5 2.</_></rects>
              <tilted>0</tilted></feature>
            <threshold>1.4037650544196367e-03</threshold>
            <left_node>1</left_node>
            <right_val>-3.8791918754577637e-01</right_val></_>
          <_>
            <!-- node 1 -->
            <feature>
              <rects>
                <_>
                  7 6 4 3 -1.</_>
                <_>
                  8 6 2 3 2.</_></rects>
              <tilted>0</tilted></feature>
            <threshold>-8.4756997239310294e-05</threshold>
            <left_val>2.7976161241531372e-01</left_val>
            <right_val>-1.4548809826374054e-01</right_val></_></_>
        <_>
          <!-- tree 11 -->
          <_>
            <!-- root node -->
            <feature>
              <rects>
                <_>
                  5 6 12 1 -1.</_>
                <_>
                  8 6 6 1 2.</_></rects>
              <tilted>0</tilted></feature>
            <threshold>-4.3748188763856888e-02</threshold>
            <left_val>-6.3423067331314087e-01</left_val>
            <right_node>1</right_node></_>
          <_>
            <!-- node 1 -->
            <feature>
              <rects>
                <_>
                  9 0 1 3 -1.</_>
                <_>
                  8 1 1 1 3.</_></rects>
              <tilted>1</tilted></feature>
            <threshold>8.4476815536618233e-03</threshold>
            <left_val>1.2689100205898285e-01</left_val>
            <right_val>-6.5568441152572632e-01</right_val></_></_></trees>
      <stage_threshold>-9.1659790277481079e-01</stage_threshold>
      <parent>3</parent>
      <next>-1</next></_>
    <_>
      <!-- stage 5 -->
      <trees>
        <_>
          <!-- tree 0 -->
          <_>
            <!-- root node -->
            <feature>
              <rects>
                <_>
                  2 2 18 8 -1.</_>
                <_>
                  8 2 6 8 3.</_></rects>
              <tilted>0</tilted></feature>
            <threshold>-5.3149241209030151e-01</threshold>
            <left_node>1</left_node>
            <right_val>-3.2968860864639282e-01</right_val></_>
          <_>
            <!-- node 1 -->
            <feature>
              <rects>
                <_>
                  9 1 10 8 -1.</_>
                <_>
                  9 3 10 4 2.</_></rects>
              <tilted>0</tilted></feature>
            <threshold>-6.1867460608482361e-02</threshold>
            <left_val>3.8864770531654358e-01</left_val>
            <right_val>-5.7521647214889526e-01</right_val></_></_>
        <_>
          <!-- tree 1 -->
          <_>
            <!-- root node -->
            <feature>
              <rects>
                <_>
                  12 3 2 3 -1.</_>
                <_>
                  13 3 1 3 2.</_></rects>
              <tilted>0</tilted></feature>
            <threshold>1.8086710479110479e-03</threshold>
            <left_val>-2.3716349899768829e-01</left_val>
            <right_node>1</right_node></_>
          <_>
            <!-- node 1 -->
            <feature>
              <rects>
                <_>
                  6 5 2 2 -1.</_>
                <_>
                  6 5 1 2 2.</_></rects>
              <tilted>1</tilted></feature>
            <threshold>4.1665919125080109e-03</threshold>
            <left_val>3.4030988812446594e-01</left_val>
            <right_val>-3.8248109817504883e-01</right_val></_></_>
        <_>
          <!-- tree 2 -->
          <_>
            <!-- root node -->
            <feature>
              <rects>
                <_>
                  6 6 10 4 -1.</_>
                <_>
                  6 7 10 2 2.</_></rects>
              <tilted>0</tilted></feature>
            <threshold>-1.8138509243726730e-02</threshold>
            <left_node>1</left_node>
            <right_val>-1.7907260358333588e-01</right_val></_>
          <_>
            <!-- node 1 -->
            <feature>
              <rects>
                <_>
                  6 6 10 4 -1.</_>
                <_>
                  6 6 5 2 2.</_>
                <_>
                  11 8 5 2 2.</_></rects>
              <tilted>0</tilted></feature>
            <threshold>5.7049199938774109e-02</threshold>
            <left_val>3.8609620928764343e-01</left_val>
            <right_val>-4.4162359833717346e-01</right_val></_></_>
        <_>
          <!-- tree 3 -->
          <_>
            <!-- root node -->
            <feature>
              <rects>
                <_>
                  7 0 5 4 -1.</_>
                <_>
                  7 0 5 2 2.</_></rects>
              <tilted>1</tilted></feature>
            <threshold>-4.4632710516452789e-02</threshold>
            <left_val>-3.9901459217071533e-01</left_val>
            <right_node>1</right_node></_>
          <_>
            <!-- node 1 -->
            <feature>
              <rects>
                <_>
                  2 0 12 6 -1.</_>
                <_>
                  2 0 6 3 2.</_>
                <_>
                  8 3 6 3 2.</_></rects>
              <tilted>0</tilted></feature>
            <threshold>-1.0260760039091110e-01</threshold>
            <left_val>4.9678689241409302e-01</left_val>
            <right_val>-2.3106459528207779e-02</right_val></_></_>
        <_>
          <!-- tree 4 -->
          <_>
            <!-- root node -->
            <feature>
              <rects>
                <_>
                  11 7 3 3 -1.</_>
                <_>
                  12 7 1 3 3.</_></rects>
              <tilted>0</tilted></feature>
            <threshold>6.2415781430900097e-03</threshold>
            <left_node>1</left_node>
            <right_val>-6.3858717679977417e-01</right_val></_>
          <_>
            <!-- node 1 -->
            <feature>
              <rects>
                <_>
                  5 2 3 2 -1.</_>
                <_>
                  6 3 1 2 3.</_></rects>
              <tilted>1</tilted></feature>
            <threshold>-1.4783269725739956e-02</threshold>
            <left_val>3.3179360628128052e-01</left_val>
            <right_val>-9.1960996389389038e-02</right_val></_></_>
        <_>
          <!-- tree 5 -->
          <_>
            <!-- root node -->
            <feature>
              <rects>
                <_>
                  0 0 7 3 -1.</_>
                <_>
                  0 1 7 1 3.</_></rects>
              <tilted>0</tilted></feature>
            <threshold>-1.4000420458614826e-02</threshold>
            <left_val>-6.0809320211410522e-01</left_val>
            <right_node>1</right_node></_>
          <_>
            <!-- node 1 -->
            <feature>
              <rects>
                <_>
                  0 7 15 3 -1.</_>
                <_>
                  5 8 5 1 9.</_></rects>
              <tilted>0</tilted></feature>
            <threshold>-1.4471049606800079e-01</threshold>
            <left_val>3.3164951205253601e-01</left_val>
            <right_val>-8.1254817545413971e-02</right_val></_></_>
        <_>
          <!-- tree 6 -->
          <_>
            <!-- root node -->
            <feature>
              <rects>
                <_>
                  16 1 4 2 -1.</_>
                <_>
                  17 1 2 2 2.</_></rects>
              <tilted>0</tilted></feature>
            <threshold>1.1499769985675812e-02</threshold>
            <left_node>1</left_node>
            <right_val>5.4052382707595825e-01</right_val></_>
          <_>
            <!-- node 1 -->
            <feature>
              <rects>
                <_>
                  3 2 14 8 -1.</_>
                <_>
                  3 4 14 4 2.</_></rects>
              <tilted>0</tilted></feature>
            <threshold>2.2339429706335068e-02</threshold>
            <left_val>-9.9988676607608795e-02</left_val>
            <right_val>7.9372072219848633e-01</right_val></_></_>
        <_>
          <!-- tree 7 -->
          <_>
            <!-- root node -->
            <feature>
              <rects>
                <_>
                  11 4 9 3 -1.</_>
                <_>
                  11 5 9 1 3.</_></rects>
              <tilted>0</tilted></feature>
            <threshold>9.7174150869250298e-03</threshold>
            <left_node>1</left_node>
            <right_val>-6.6299098730087280e-01</right_val></_>
          <_>
            <!-- node 1 -->
            <feature>
              <rects>
                <_>
                  16 0 4 6 -1.</_>
                <_>
                  17 0 2 6 2.</_></rects>
              <tilted>0</tilted></feature>
            <threshold>-1.4017449691891670e-02</threshold>
            <left_val>3.6644500494003296e-01</left_val>
            <right_val>-4.8251360654830933e-02</right_val></_></_>
        <_>
          <!-- tree 8 -->
          <_>
            <!-- root node -->
            <feature>
              <rects>
                <_>
                  0 0 5 3 -1.</_>
                <_>
                  0 1 5 1 3.</_></rects>
              <tilted>0</tilted></feature>
            <threshold>1.9427999854087830e-02</threshold>
            <left_node>1</left_node>
            <right_val>-7.8425282239913940e-01</right_val></_>
          <_>
            <!-- node 1 -->
            <feature>
              <rects>
                <_>
                  14 7 4 3 -1.</_>
                <_>
                  14 8 4 1 3.</_></rects>
              <tilted>0</tilted></feature>
            <threshold>8.6673852056264877e-03</threshold>
            <left_val>1.1208850145339966e-01</left_val>
            <right_val>-4.4640931487083435e-01</right_val></_></_>
        <_>
          <!-- tree 9 -->
          <_>
            <!-- root node -->
            <feature>
              <rects>
                <_>
                  18 2 2 6 -1.</_>
                <_>
                  19 2 1 6 2.</_></rects>
              <tilted>0</tilted></feature>
            <threshold>-3.9777760393917561e-03</threshold>
            <left_val>-4.8793441057205200e-01</left_val>
            <right_node>1</right_node></_>
          <_>
            <!-- node 1 -->
            <feature>
              <rects>
                <_>
                  3 7 3 3 -1.</_>
                <_>
                  3 8 3 1 3.</_></rects>
              <tilted>0</tilted></feature>
            <threshold>-5.0854249857366085e-03</threshold>
            <left_val>-3.2389518618583679e-01</left_val>
            <right_val>1.5005829930305481e-01</right_val></_></_>
        <_>
          <!-- tree 10 -->
          <_>
            <!-- root node -->
            <feature>
              <rects>
                <_>
                  0 7 6 3 -1.</_>
                <_>
                  0 8 6 1 3.</_></rects>
              <tilted>0</tilted></feature>
            <threshold>1.1673119850456715e-02</threshold>
            <left_node>1</left_node>
            <right_val>-5.3219032287597656e-01</right_val></_>
          <_>
            <!-- node 1 -->
            <feature>
              <rects>
                <_>
                  1 3 2 2 -1.</_>
                <_>
                  1 3 1 1 2.</_>
                <_>
                  2 4 1 1 2.</_></rects>
              <tilted>0</tilted></feature>
            <threshold>-1.5233170415740460e-04</threshold>
            <left_val>2.4969740211963654e-01</left_val>
            <right_val>-1.8451879918575287e-01</right_val></_></_>
        <_>
          <!-- tree 11 -->
          <_>
            <!-- root node -->
            <feature>
              <rects>
                <_>
                  6 2 3 1 -1.</_>
                <_>
                  7 2 1 1 3.</_></rects>
              <tilted>0</tilted></feature>
            <threshold>-5.7367058470845222e-03</threshold>
            <left_val>-7.9881787300109863e-01</left_val>
            <right_node>1</right_node></_>
          <_>
            <!-- node 1 -->
            <feature>
              <rects>
                <_>
                  15 2 3 3 -1.</_>
                <_>
                  16 3 1 1 9.</_></rects>
              <tilted>0</tilted></feature>
            <threshold>-8.2667749375104904e-03</threshold>
            <left_val>2.9993000626564026e-01</left_val>
            <right_val>-1.1305789649486542e-01</right_val></_></_>
        <_>
          <!-- tree 12 -->
          <_>
            <!-- root node -->
            <feature>
              <rects>
                <_>
                  14 3 6 2 -1.</_>
                <_>
                  14 3 3 1 2.</_>
                <_>
                  17 4 3 1 2.</_></rects>
              <tilted>0</tilted></feature>
            <threshold>5.5459281429648399e-03</threshold>
            <left_val>-1.5382109582424164e-01</left_val>
            <right_node>1</right_node></_>
          <_>
            <!-- node 1 -->
            <feature>
              <rects>
                <_>
                  0 6 3 3 -1.</_>
                <_>
                  0 7 3 1 3.</_></rects>
              <tilted>0</tilted></feature>
            <threshold>7.8405970707535744e-03</threshold>
            <left_val>2.9642438888549805e-01</left_val>
            <right_val>-9.2260402441024780e-01</right_val></_></_>
        <_>
          <!-- tree 13 -->
          <_>
            <!-- root node -->
            <feature>
              <rects>
                <_>
                  18 3 2 2 -1.</_>
                <_>
                  18 4 2 1 2.</_></rects>
              <tilted>0</tilted></feature>
            <threshold>-2.1920590370427817e-04</threshold>
            <left_node>1</left_node>
            <right_val>-1.9358579814434052e-01</right_val></_>
          <_>
            <!-- node 1 -->
            <feature>
              <rects>
                <_>
                  6 0 14 10 -1.</_>
                <_>
                  6 5 14 5 2.</_></rects>
              <tilted>0</tilted></feature>
            <threshold>-5.7815527915954590e-01</threshold>
            <left_val>-6.8929827213287354e-01</left_val>
            <right_val>2.5175750255584717e-01</right_val></_></_>
        <_>
          <!-- tree 14 -->
          <_>
            <!-- root node -->
            <feature>
              <rects>
                <_>
                  12 1 3 1 -1.</_>
                <_>
                  13 1 1 1 3.</_></rects>
              <tilted>0</tilted></feature>
            <threshold>2.8320238925516605e-03</threshold>
            <left_node>1</left_node>
            <right_val>-4.5226201415061951e-01</right_val></_>
          <_>
            <!-- node 1 -->
            <feature>
              <rects>
                <_>
                  17 0 2 2 -1.</_>
                <_>
                  17 0 1 2 2.</_></rects>
              <tilted>1</tilted></feature>
            <threshold>1.8200440332293510e-02</threshold>
            <left_val>1.1799009889364243e-01</left_val>
            <right_val>-6.6671532392501831e-01</right_val></_></_>
        <_>
          <!-- tree 15 -->
          <_>
            <!-- root node -->
            <feature>
              <rects>
                <_>
                  2 0 8 10 -1.</_>
                <_>
                  2 0 4 5 2.</_>
                <_>
                  6 5 4 5 2.</_></rects>
              <tilted>0</tilted></feature>
            <threshold>8.7281301617622375e-02</threshold>
            <left_node>1</left_node>
            <right_val>-4.9900120496749878e-01</right_val></_>
          <_>
            <!-- node 1 -->
            <feature>
              <rects>
                <_>
                  6 0 9 6 -1.</_>
                <_>
                  9 2 3 2 9.</_></rects>
              <tilted>0</tilted></feature>
            <threshold>-1.9450899958610535e-01</threshold>
            <left_val>3.9595550298690796e-01</left_val>
            <right_val>-7.0997573435306549e-02</right_val></_></_>
        <_>
          <!-- tree 16 -->
          <_>
            <!-- root node -->
            <feature>
              <rects>
                <_>
                  9 2 1 2 -1.</_>
                <_>
                  9 2 1 1 2.</_></rects>
              <tilted>1</tilted></feature>
            <threshold>2.6968440506607294e-03</threshold>
            <left_node>1</left_node>
            <right_val>2.2198720276355743e-01</right_val></_>
          <_>
            <!-- node 1 -->
            <feature>
              <rects>
                <_>
                  8 3 4 2 -1.</_>
                <_>
                  8 4 4 1 2.</_></rects>
              <tilted>0</tilted></feature>
            <threshold>1.0277819819748402e-03</threshold>
            <left_val>-4.3305191397666931e-01</left_val>
            <right_val>1.2960219383239746e-01</right_val></_></_></trees>
      <stage_threshold>-1.0321329832077026e+00</stage_threshold>
      <parent>4</parent>
      <next>-1</next></_>
    <_>
      <!-- stage 6 -->
      <trees>
        <_>
          <!-- tree 0 -->
          <_>
            <!-- root node -->
            <feature>
              <rects>
                <_>
                  1 1 18 9 -1.</_>
                <_>
                  7 4 6 3 9.</_></rects>
              <tilted>0</tilted></feature>
            <threshold>-9.7017550468444824e-01</threshold>
            <left_node>1</left_node>
            <right_val>-2.5067341327667236e-01</right_val></_>
          <_>
            <!-- node 1 -->
            <feature>
              <rects>
                <_>
                  12 4 2 1 -1.</_>
                <_>
                  13 4 1 1 2.</_></rects>
              <tilted>0</tilted></feature>
            <threshold>3.2584849395789206e-04</threshold>
            <left_val>-3.1821158528327942e-01</left_val>
            <right_val>4.7914889454841614e-01</right_val></_></_>
        <_>
          <!-- tree 1 -->
          <_>
            <!-- root node -->
            <feature>
              <rects>
                <_>
                  5 0 10 6 -1.</_>
                <_>
                  5 0 5 3 2.</_>
                <_>
                  10 3 5 3 2.</_></rects>
              <tilted>0</tilted></feature>
            <threshold>-4.6020120382308960e-02</threshold>
            <left_node>1</left_node>
            <right_val>-1.2266500294208527e-01</right_val></_>
          <_>
            <!-- node 1 -->
            <feature>
              <rects>
                <_>
                  2 2 6 6 -1.</_>
                <_>
                  4 2 2 6 3.</_></rects>
              <tilted>0</tilted></feature>
            <threshold>-3.4059420228004456e-02</threshold>
            <left_val>7.0916122198104858e-01</left_val>
            <right_val>-1.5603309869766235e-01</right_val></_></_>
        <_>
          <!-- tree 2 -->
          <_>
            <!-- root node -->
            <feature>
              <rects>
                <_>
                  9 8 11 2 -1.</_>
                <_>
                  9 9 11 1 2.</_></rects>
              <tilted>0</tilted></feature>
            <threshold>6.0580070130527020e-03</threshold>
            <left_val>-2.6819491386413574e-01</left_val>
            <right_node>1</right_node></_>
          <_>
            <!-- node 1 -->
            <feature>
              <rects>
                <_>
                  10 1 3 1 -1.</_>
                <_>
                  11 1 1 1 3.</_></rects>
              <tilted>0</tilted></feature>
            <threshold>-3.5279518924653530e-03</threshold>
            <left_val>-4.3678939342498779e-01</left_val>
            <right_val>2.6518860459327698e-01</right_val></_></_>
        <_>
          <!-- tree 3 -->
          <_>
            <!-- root node -->
            <feature>
              <rects>
                <_>
                  2 8 16 2 -1.</_>
                <_>
                  2 8 8 1 2.</_>
                <_>
                  10 9 8 1 2.</_></rects>
              <tilted>0</tilted></feature>
            <threshold>2.0079119130969048e-02</threshold>
            <left_node>1</left_node>
            <right_val>-5.0797671079635620e-01</right_val></_>
          <_>
            <!-- node 1 -->
            <feature>
              <rects>
                <_>
                  1 3 5 2 -1.</_>
                <_>
                  1 4 5 1 2.</_></rects>
              <tilted>0</tilted></feature>
            <threshold>4.7272192314267159e-03</threshold>
            <left_val>1.2933589518070221e-01</left_val>
            <right_val>-4.7883668541908264e-01</right_val></_></_>
        <_>
          <!-- tree 4 -->
          <_>
            <!-- root node -->
            <feature>
              <rects>
                <_>
                  9 1 3 2 -1.</_>
                <_>
                  10 1 1 2 3.</_></rects>
              <tilted>0</tilted></feature>
            <threshold>-7.3106279596686363e-03</threshold>
            <left_val>-5.8017921447753906e-01</left_val>
            <right_node>1</right_node></_>
          <_>
            <!-- node 1 -->
            <feature>
              <rects>
                <_>
                  9 2 4 1 -1.</_>
                <_>
                  10 2 2 1 2.</_></rects>
              <tilted>0</tilted></feature>
            <threshold>-1.6379909357056022e-04</threshold>
            <left_val>2.2704200446605682e-01</left_val>
            <right_val>-1.8175069987773895e-01</right_val></_></_>
        <_>
          <!-- tree 5 -->
          <_>
            <!-- root node -->
            <feature>
              <rects>
                <_>
                  1 0 12 1 -1.</_>
                <_>
                  7 0 6 1 2.</_></rects>
              <tilted>0</tilted></feature>
            <threshold>2.1013980731368065e-02</threshold>
            <left_node>1</left_node>
            <right_val>3.4561580419540405e-01</right_val></_>
          <_>
            <!-- node 1 -->
            <feature>
              <rects>
                <_>
                  16 3 4 7 -1.</_>
                <_>
                  17 3 2 7 2.</_></rects>
              <tilted>0</tilted></feature>
            <threshold>-1.2161510065197945e-02</threshold>
            <left_val>1.6348280012607574e-01</left_val>
            <right_val>-2.7292421460151672e-01</right_val></_></_>
        <_>
          <!-- tree 6 -->
          <_>
            <!-- root node -->
            <feature>
              <rects>
                <_>
                  8 3 2 2 -1.</_>
                <_>
                  8 3 1 1 2.</_>
                <_>
                  9 4 1 1 2.</_></rects>
              <tilted>0</tilted></feature>
            <threshold>-4.8387898132205009e-03</threshold>
            <left_val>-1.</left_val>
            <right_node>1</right_node></_>
          <_>
            <!-- node 1 -->
            <feature>
              <rects>
                <_>
                  2 3 18 3 -1.</_>
                <_>
                  11 3 9 3 2.</_></rects>
              <tilted>0</tilted></feature>
            <threshold>2.4903589487075806e-01</threshold>
            <left_val>8.1712283194065094e-02</left_val>
            <right_val>-7.0042079687118530e-01</right_val></_></_>
        <_>
          <!-- tree 7 -->
          <_>
            <!-- root node -->
            <feature>
              <rects>
                <_>
                  2 8 2 2 -1.</_>
                <_>
                  2 8 1 1 2.</_>
                <_>
                  3 9 1 1 2.</_></rects>
              <tilted>0</tilted></feature>
            <threshold>-2.2595780901610851e-03</threshold>
            <left_val>-4.8597380518913269e-01</left_val>
            <right_node>1</right_node></_>
          <_>
            <!-- node 1 -->
            <feature>
              <rects>
                <_>
                  6 0 4 1 -1.</_>
                <_>
                  7 0 2 1 2.</_></rects>
              <tilted>0</tilted></feature>
            <threshold>-5.3209317848086357e-03</threshold>
            <left_val>-7.9588681459426880e-01</left_val>
            <right_val>8.2329683005809784e-02</right_val></_></_>
        <_>
          <!-- tree 8 -->
          <_>
            <!-- root node -->
            <feature>
              <rects>
                <_>
                  6 3 4 7 -1.</_>
                <_>
                  7 3 2 7 2.</_></rects>
              <tilted>0</tilted></feature>
            <threshold>-1.8698260188102722e-02</threshold>
            <left_val>4.2969200015068054e-01</left_val>
            <right_node>1</right_node></_>
          <_>
            <!-- node 1 -->
            <feature>
              <rects>
                <_>
                  4 3 4 5 -1.</_>
                <_>
                  5 3 2 5 2.</_></rects>
              <tilted>0</tilted></feature>
            <threshold>-4.7703268937766552e-03</threshold>
            <left_val>1.3589279353618622e-01</left_val>
            <right_val>-3.0358549952507019e-01</right_val></_></_>
        <_>
          <!-- tree 9 -->
          <_>
            <!-- root node -->
            <feature>
              <rects>
                <_>
                  2 1 6 6 -1.</_>
                <_>
                  5 1 3 6 2.</_></rects>
              <tilted>0</tilted></feature>
            <threshold>-2.1047610789537430e-02</threshold>
            <left_node>1</left_node>
            <right_val>2.9430660605430603e-01</right_val></_>
          <_>
            <!-- node 1 -->
            <feature>
              <rects>
                <_>
                  5 8 6 1 -1.</_>
                <_>
                  8 8 3 1 2.</_></rects>
              <tilted>0</tilted></feature>
            <threshold>2.6017399504780769e-03</threshold>
            <left_val>-4.4771220535039902e-02</left_val>
            <right_val>-8.3662468194961548e-01</right_val></_></_>
        <_>
          <!-- tree 10 -->
          <_>
            <!-- root node -->
            <feature>
              <rects>
                <_>
                  15 9 2 1 -1.</_>
                <_>
                  16 9 1 1 2.</_></rects>
              <tilted>0</tilted></feature>
            <threshold>-6.0440372908487916e-04</threshold>
            <left_val>-4.0700888633728027e-01</left_val>
            <right_node>1</right_node></_>
          <_>
            <!-- node 1 -->
            <feature>
              <rects>
                <_>
                  10 7 2 2 -1.</_>
                <_>
                  10 7 1 1 2.</_>
                <_>
                  11 8 1 1 2.</_></rects>
              <tilted>0</tilted></feature>
            <threshold>3.1394010875374079e-03</threshold>
            <left_val>1.2361810356378555e-01</left_val>
            <right_val>-8.2626152038574219e-01</right_val></_></_>
        <_>
          <!-- tree 11 -->
          <_>
            <!-- root node -->
            <feature>
              <rects>
                <_>
                  10 3 6 6 -1.</_>
                <_>
                  10 5 6 2 3.</_></rects>
              <tilted>0</tilted></feature>
            <threshold>-8.6279436945915222e-02</threshold>
            <left_val>4.9549430608749390e-01</left_val>
            <right_node>1</right_node></_>
          <_>
            <!-- node 1 -->
            <feature>
              <rects>
                <_>
                  14 0 3 4 -1.</_>
                <_>
                  15 1 1 4 3.</_></rects>
              <tilted>1</tilted></feature>
            <threshold>-2.3603099398314953e-03</threshold>
            <left_val>2.8023099526762962e-02</left_val>
            <right_val>-4.3635189533233643e-01</right_val></_></_>
        <_>
          <!-- tree 12 -->
          <_>
            <!-- root node -->
            <feature>
              <rects>
                <_>
                  2 0 12 2 -1.</_>
                <_>
                  6 0 4 2 3.</_></rects>
              <tilted>0</tilted></feature>
            <threshold>-6.8364441394805908e-02</threshold>
            <left_val>5.7832622528076172e-01</left_val>
            <right_node>1</right_node></_>
          <_>
            <!-- node 1 -->
            <feature>
              <rects>
                <_>
                  3 0 4 1 -1.</_>
                <_>
                  5 0 2 1 2.</_></rects>
              <tilted>0</tilted></feature>
            <threshold>-3.7866490893065929e-03</threshold>
            <left_val>-3.7717789411544800e-01</left_val>
            <right_val>5.2798070013523102e-02</right_val></_></_>
        <_>
          <!-- tree 13 -->
          <_>
            <!-- root node -->
            <feature>
              <rects>
                <_>
                  7 2 3 2 -1.</_>
                <_>
                  7 3 3 1 2.</_></rects>
              <tilted>0</tilted></feature>
            <threshold>3.2911680173128843e-03</threshold>
            <left_node>1</left_node>
            <right_val>6.0478532314300537e-01</right_val></_>
          <_>
            <!-- node 1 -->
            <feature>
              <rects>
                <_>
                  14 0 5 3 -1.</_>
                <_>
                  14 1 5 1 3.</_></rects>
              <tilted>0</tilted></feature>
            <threshold>-7.3644598014652729e-03</threshold>
            <left_val>-5.1968348026275635e-01</left_val>
            <right_val>3.2427478581666946e-02</right_val></_></_>
        <_>
          <!-- tree 14 -->
          <_>
            <!-- root node -->
            <feature>
              <rects>
                <_>
                  16 0 4 3 -1.</_>
                <_>
                  16 1 4 1 3.</_></rects>
              <tilted>0</tilted></feature>
            <threshold>4.1312440298497677e-03</threshold>
            <left_node>1</left_node>
            <right_val>-3.4564989805221558e-01</right_val></_>
          <_>
            <!-- node 1 -->
            <feature>
              <rects>
                <_>
                  17 2 1 3 -1.</_>
                <_>
                  17 3 1 1 3.</_></rects>
              <tilted>0</tilted></feature>
            <threshold>-3.3962999004870653e-03</threshold>
            <left_val>-5.2780598402023315e-01</left_val>
            <right_val>2.0316860079765320e-01</right_val></_></_>
        <_>
          <!-- tree 15 -->
          <_>
            <!-- root node -->
            <feature>
              <rects>
                <_>
                  8 4 6 6 -1.</_>
                <_>
                  11 4 3 6 2.</_></rects>
              <tilted>0</tilted></feature>
            <threshold>4.5990631915628910e-03</threshold>
            <left_val>-2.0758619904518127e-01</left_val>
            <right_node>1</right_node></_>
          <_>
            <!-- node 1 -->
            <feature>
              <rects>
                <_>
                  2 0 2 7 -1.</_>
                <_>
                  3 0 1 7 2.</_></rects>
              <tilted>0</tilted></feature>
            <threshold>-8.7049864232540131e-03</threshold>
            <left_val>5.3918969631195068e-01</left_val>
            <right_val>-1.4870080351829529e-01</right_val></_></_>
        <_>
          <!-- tree 16 -->
          <_>
            <!-- root node -->
            <feature>
              <rects>
                <_>
                  10 7 6 2 -1.</_>
                <_>
                  12 7 2 2 3.</_></rects>
              <tilted>0</tilted></feature>
            <threshold>-8.1729348748922348e-03</threshold>
            <left_node>1</left_node>
            <right_val>-1.9795399904251099e-01</right_val></_>
          <_>
            <!-- node 1 -->
            <feature>
              <rects>
                <_>
                  9 0 3 3 -1.</_>
                <_>
                  8 1 3 1 3.</_></rects>
              <tilted>1</tilted></feature>
            <threshold>5.9210769832134247e-03</threshold>
            <left_val>3.4903201460838318e-01</left_val>
            <right_val>-5.4972147941589355e-01</right_val></_></_>
        <_>
          <!-- tree 17 -->
          <_>
            <!-- root node -->
            <feature>
              <rects>
                <_>
                  18 0 2 4 -1.</_>
                <_>
                  18 0 1 2 2.</_>
                <_>
                  19 2 1 2 2.</_></rects>
              <tilted>0</tilted></feature>
            <threshold>1.1640549637377262e-02</threshold>
            <left_node>1</left_node>
            <right_val>5.2579027414321899e-01</right_val></_>
          <_>
            <!-- node 1 -->
            <feature>
              <rects>
                <_>
                  17 0 3 1 -1.</_>
                <_>
                  18 0 1 1 3.</_></rects>
              <tilted>0</tilted></feature>
            <threshold>1.0497410548850894e-03</threshold>
            <left_val>6.0124270617961884e-02</left_val>
            <right_val>-4.9841821193695068e-01</right_val></_></_>
        <_>
          <!-- tree 18 -->
          <_>
            <!-- root node -->
            <feature>
              <rects>
                <_>
                  2 2 4 2 -1.</_>
                <_>
                  3 2 2 2 2.</_></rects>
              <tilted>0</tilted></feature>
            <threshold>1.5812659636139870e-02</threshold>
            <left_node>1</left_node>
            <right_val>7.9564958810806274e-01</right_val></_>
          <_>
            <!-- node 1 -->
            <feature>
              <rects>
                <_>
                  1 0 6 4 -1.</_>
                <_>
                  1 2 6 2 2.</_></rects>
              <tilted>0</tilted></feature>
            <threshold>8.8314395397901535e-03</threshold>
            <left_val>2.8003500774502754e-02</left_val>
            <right_val>-5.2852392196655273e-01</right_val></_></_></trees>
      <stage_threshold>-7.7851790189743042e-01</stage_threshold>
      <parent>5</parent>
      <next>-1</next></_>
    <_>
      <!-- stage 7 -->
      <trees>
        <_>
          <!-- tree 0 -->
          <_>
            <!-- root node -->
            <feature>
              <rects>
                <_>
                  0 1 16 4 -1.</_>
                <_>
                  0 1 8 2 2.</_>
                <_>
                  8 3 8 2 2.</_></rects>
              <tilted>0</tilted></feature>
            <threshold>-1.1351539939641953e-01</threshold>
            <left_node>1</left_node>
            <right_val>-1.0166940093040466e-01</right_val></_>
          <_>
            <!-- node 1 -->
            <feature>
              <rects>
                <_>
                  9 2 6 3 -1.</_>
                <_>
                  12 2 3 3 2.</_></rects>
              <tilted>0</tilted></feature>
            <threshold>-6.1741559766232967e-03</threshold>
            <left_val>-6.3248991966247559e-01</left_val>
            <right_val>8.8041102886199951e-01</right_val></_></_>
        <_>
          <!-- tree 1 -->
          <_>
            <!-- root node -->
            <feature>
              <rects>
                <_>
                  12 1 4 2 -1.</_>
                <_>
                  13 2 2 2 2.</_></rects>
              <tilted>1</tilted></feature>
            <threshold>-1.7481189221143723e-02</threshold>
            <left_val>2.8173241019248962e-01</left_val>
            <right_node>1</right_node></_>
          <_>
            <!-- node 1 -->
            <feature>
              <rects>
                <_>
                  0 5 18 3 -1.</_>
                <_>
                  6 6 6 1 9.</_></rects>
              <tilted>0</tilted></feature>
            <threshold>-1.4086529612541199e-01</threshold>
            <left_val>9.5801286399364471e-02</left_val>
            <right_val>-4.8383331298828125e-01</right_val></_></_>
        <_>
          <!-- tree 2 -->
          <_>
            <!-- root node -->
            <feature>
              <rects>
                <_>
                  0 6 1 2 -1.</_>
                <_>
                  0 7 1 1 2.</_></rects>
              <tilted>0</tilted></feature>
            <threshold>3.0457600951194763e-04</threshold>
            <left_val>-2.3913909494876862e-01</left_val>
            <right_node>1</right_node></_>
          <_>
            <!-- node 1 -->
            <feature>
              <rects>
                <_>
                  4 4 4 1 -1.</_>
                <_>
                  6 4 2 1 2.</_></rects>
              <tilted>0</tilted></feature>
            <threshold>-3.4557140897959471e-03</threshold>
            <left_val>-1.5545760095119476e-01</left_val>
            <right_val>4.1452398896217346e-01</right_val></_></_>
        <_>
          <!-- tree 3 -->
          <_>
            <!-- root node -->
            <feature>
              <rects>
                <_>
                  14 4 3 6 -1.</_>
                <_>
                  15 4 1 6 3.</_></rects>
              <tilted>0</tilted></feature>
            <threshold>3.9604608900845051e-03</threshold>
            <left_node>1</left_node>
            <right_val>-2.3359739780426025e-01</right_val></_>
          <_>
            <!-- node 1 -->
            <feature>
              <rects>
                <_>
                  12 0 6 6 -1.</_>
                <_>
                  12 3 6 3 2.</_></rects>
              <tilted>0</tilted></feature>
            <threshold>1.5073710121214390e-02</threshold>
            <left_val>2.6898410916328430e-01</left_val>
            <right_val>-7.9445248842239380e-01</right_val></_></_>
        <_>
          <!-- tree 4 -->
          <_>
            <!-- root node -->
            <feature>
              <rects>
                <_>
                  8 2 4 2 -1.</_>
                <_>
                  8 2 2 1 2.</_>
                <_>
                  10 3 2 1 2.</_></rects>
              <tilted>0</tilted></feature>
            <threshold>-8.0615309998393059e-03</threshold>
            <left_val>-7.1221232414245605e-01</left_val>
            <right_node>1</right_node></_>
          <_>
            <!-- node 1 -->
            <feature>
              <rects>
                <_>
                  9 3 4 1 -1.</_>
                <_>
                  10 3 2 1 2.</_></rects>
              <tilted>0</tilted></feature>
            <threshold>9.3981582904234529e-04</threshold>
            <left_val>1.5155549347400665e-01</left_val>
            <right_val>-3.6772230267524719e-01</right_val></_></_>
        <_>
          <!-- tree 5 -->
          <_>
            <!-- root node -->
            <feature>
              <rects>
                <_>
                  16 0 4 3 -1.</_>
                <_>
                  17 0 2 3 2.</_></rects>
              <tilted>0</tilted></feature>
            <threshold>5.4027470760047436e-03</threshold>
            <left_node>1</left_node>
            <right_val>4.1402399539947510e-01</right_val></_>
          <_>
            <!-- node 1 -->
            <feature>
              <rects>
                <_>
                  14 6 4 4 -1.</_>
                <_>
                  14 6 2 2 2.</_>
                <_>
                  16 8 2 2 2.</_></rects>
              <tilted>0</tilted></feature>
            <threshold>8.4945242851972580e-03</threshold>
            <left_val>-2.8313788771629333e-01</left_val>
            <right_val>2.3045860230922699e-01</right_val></_></_>
        <_>
          <!-- tree 6 -->
          <_>
            <!-- root node -->
            <feature>
              <rects>
                <_>
                  15 8 4 2 -1.</_>
                <_>
                  17 8 2 2 2.</_></rects>
              <tilted>0</tilted></feature>
            <threshold>1.0846629738807678e-02</threshold>
            <left_val>2.4342140555381775e-01</left_val>
            <right_node>1</right_node></_>
          <_>
            <!-- node 1 -->
            <feature>
              <rects>
                <_>
                  0 1 18 9 -1.</_>
                <_>
                  6 4 6 3 9.</_></rects>
              <tilted>0</tilted></feature>
            <threshold>-1.1275639533996582e+00</threshold>
            <left_val>4.9690988659858704e-01</left_val>
            <right_val>-3.3316949009895325e-01</right_val></_></_>
        <_>
          <!-- tree 7 -->
          <_>
            <!-- root node -->
            <feature>
              <rects>
                <_>
                  4 5 12 3 -1.</_>
                <_>
                  8 6 4 1 9.</_></rects>
              <tilted>0</tilted></feature>
            <threshold>-1.3162070512771606e-01</threshold>
            <left_val>-4.0905389189720154e-01</left_val>
            <right_node>1</right_node></_>
          <_>
            <!-- node 1 -->
            <feature>
              <rects>
                <_>
                  14 4 1 4 -1.</_>
                <_>
                  14 5 1 2 2.</_></rects>
              <tilted>0</tilted></feature>
            <threshold>2.4255309253931046e-03</threshold>
            <left_val>1.1602699756622314e-02</left_val>
            <right_val>6.7879688739776611e-01</right_val></_></_>
        <_>
          <!-- tree 8 -->
          <_>
            <!-- root node -->
            <feature>
              <rects>
                <_>
                  2 1 6 1 -1.</_>
                <_>
                  4 3 2 1 3.</_></rects>
              <tilted>1</tilted></feature>
            <threshold>-2.2846380248665810e-02</threshold>
            <left_val>2.7662301063537598e-01</left_val>
            <right_node>1</right_node></_>
          <_>
            <!-- node 1 -->
            <feature>
              <rects>
                <_>
                  1 6 9 4 -1.</_>
                <_>
                  1 7 9 2 2.</_></rects>
              <tilted>0</tilted></feature>
            <threshold>-5.2216411568224430e-03</threshold>
            <left_val>4.7403458505868912e-02</left_val>
            <right_val>-5.1715898513793945e-01</right_val></_></_>
        <_>
          <!-- tree 9 -->
          <_>
            <!-- root node -->
            <feature>
              <rects>
                <_>
                  5 4 6 4 -1.</_>
                <_>
                  5 5 6 2 2.</_></rects>
              <tilted>0</tilted></feature>
            <threshold>1.4745719730854034e-02</threshold>
            <left_node>1</left_node>
            <right_val>-5.3838288784027100e-01</right_val></_>
          <_>
            <!-- node 1 -->
            <feature>
              <rects>
                <_>
                  8 6 6 3 -1.</_>
                <_>
                  11 6 3 3 2.</_></rects>
              <tilted>0</tilted></feature>
            <threshold>-4.6626608818769455e-02</threshold>
            <left_val>7.8330492973327637e-01</left_val>
            <right_val>-5.3712399676442146e-03</right_val></_></_>
        <_>
          <!-- tree 10 -->
          <_>
            <!-- root node -->
            <feature>
              <rects>
                <_>
                  4 0 2 3 -1.</_>
                <_>
                  4 1 2 1 3.</_></rects>
              <tilted>0</tilted></feature>
            <threshold>-6.3027148135006428e-03</threshold>
            <left_val>-6.2632417678833008e-01</left_val>
            <right_node>1</right_node></_>
          <_>
            <!-- node 1 -->
            <feature>
              <rects>
                <_>
                  8 0 4 3 -1.</_>
                <_>
                  7 1 4 1 3.</_></rects>
              <tilted>1</tilted></feature>
            <threshold>-4.0363068692386150e-03</threshold>
            <left_val>2.3181289434432983e-01</left_val>
            <right_val>-2.3689529299736023e-01</right_val></_></_>
        <_>
          <!-- tree 11 -->
          <_>
            <!-- root node -->
            <feature>
              <rects>
                <_>
                  10 7 3 3 -1.</_>
                <_>
                  11 7 1 3 3.</_></rects>
              <tilted>0</tilted></feature>
            <threshold>-9.0040788054466248e-03</threshold>
            <left_val>-6.5266221761703491e-01</left_val>
            <right_node>1</right_node></_>
          <_>
            <!-- node 1 -->
            <feature>
              <rects>
                <_>
                  7 0 3 3 -1.</_>
                <_>
                  8 0 1 3 3.</_></rects>
              <tilted>0</tilted></feature>
            <threshold>8.2692597061395645e-03</threshold>
            <left_val>1.3784049451351166e-01</left_val>
            <right_val>-5.3195369243621826e-01</right_val></_></_>
        <_>
          <!-- tree 12 -->
          <_>
            <!-- root node -->
            <feature>
              <rects>
                <_>
                  1 4 2 2 -1.</_>
                <_>
                  1 4 1 1 2.</_>
                <_>
                  2 5 1 1 2.</_></rects>
              <tilted>0</tilted></feature>
            <threshold>1.1111190542578697e-03</threshold>
            <left_node>1</left_node>
            <right_val>-3.6238971352577209e-01</right_val></_>
          <_>
            <!-- node 1 -->
            <feature>
              <rects>
                <_>
                  3 5 1 3 -1.</_>
                <_>
                  3 6 1 1 3.</_></rects>
              <tilted>0</tilted></feature>
            <threshold>3.2134130597114563e-03</threshold>
            <left_val>1.8459360301494598e-01</left_val>
            <right_val>-6.4695042371749878e-01</right_val></_></_>
        <_>
          <!-- tree 13 -->
          <_>
            <!-- root node -->
            <feature>
              <rects>
                <_>
                  3 2 4 2 -1.</_>
                <_>
                  3 2 2 1 2.</_>
                <_>
                  5 3 2 1 2.</_></rects>
              <tilted>0</tilted></feature>
            <threshold>3.3668980468064547e-03</threshold>
            <left_node>1</left_node>
            <right_val>4.5455169677734375e-01</right_val></_>
          <_>
            <!-- node 1 -->
            <feature>
              <rects>
                <_>
                  3 1 6 9 -1.</_>
                <_>
                  5 1 2 9 3.</_></rects>
              <tilted>0</tilted></feature>
            <threshold>-7.9400770366191864e-02</threshold>
            <left_val>7.5688982009887695e-01</left_val>
            <right_val>-2.1310949325561523e-01</right_val></_></_>
        <_>
          <!-- tree 14 -->
          <_>
            <!-- root node -->
            <feature>
              <rects>
                <_>
                  7 2 4 6 -1.</_>
                <_>
                  7 2 2 3 2.</_>
                <_>
                  9 5 2 3 2.</_></rects>
              <tilted>0</tilted></feature>
            <threshold>-2.2595740854740143e-02</threshold>
            <left_val>-4.7423261404037476e-01</left_val>
            <right_node>1</right_node></_>
          <_>
            <!-- node 1 -->
            <feature>
              <rects>
                <_>
                  6 3 2 4 -1.</_>
                <_>
                  6 3 1 4 2.</_></rects>
              <tilted>1</tilted></feature>
            <threshold>4.4026710093021393e-03</threshold>
            <left_val>3.6340010166168213e-01</left_val>
            <right_val>-1.3557429611682892e-01</right_val></_></_>
        <_>
          <!-- tree 15 -->
          <_>
            <!-- root node -->
            <feature>
              <rects>
                <_>
                  6 3 2 5 -1.</_>
                <_>
                  6 3 1 5 2.</_></rects>
              <tilted>1</tilted></feature>
            <threshold>-3.2519910484552383e-02</threshold>
            <left_val>-7.2377198934555054e-01</left_val>
            <right_node>1</right_node></_>
          <_>
            <!-- node 1 -->
            <feature>
              <rects>
                <_>
                  13 5 2 3 -1.</_>
                <_>
                  12 6 2 1 3.</_></rects>
              <tilted>1</tilted></feature>
            <threshold>-4.9747708253562450e-03</threshold>
            <left_val>2.9725649952888489e-01</left_val>
            <right_val>-1.6251890361309052e-01</right_val></_></_></trees>
      <stage_threshold>-8.7802612781524658e-01</stage_threshold>
      <parent>6</parent>
      <next>-1</next></_>
    <_>
      <!-- stage 8 -->
      <trees>
        <_>
          <!-- tree 0 -->
          <_>
            <!-- root node -->
            <feature>
              <rects>
                <_>
                  11 1 7 4 -1.</_>
                <_>
                  11 3 7 2 2.</_></rects>
              <tilted>0</tilted></feature>
            <threshold>-1.0388699918985367e-01</threshold>
            <left_val>5.8329898118972778e-01</left_val>
            <right_node>1</right_node></_>
          <_>
            <!-- node 1 -->
            <feature>
              <rects>
                <_>
                  5 3 2 3 -1.</_>
                <_>
                  4 4 2 1 3.</_></rects>
              <tilted>1</tilted></feature>
            <threshold>-1.3216099701821804e-02</threshold>
            <left_val>2.3431509733200073e-01</left_val>
            <right_val>-3.0369418859481812e-01</right_val></_></_>
        <_>
          <!-- tree 1 -->
          <_>
            <!-- root node -->
            <feature>
              <rects>
                <_>
                  14 3 2 4 -1.</_>
                <_>
                  14 3 1 2 2.</_>
                <_>
                  15 5 1 2 2.</_></rects>
              <tilted>0</tilted></feature>
            <threshold>-2.9243261087685823e-03</threshold>
            <left_node>1</left_node>
            <right_val>-1.4466349780559540e-01</right_val></_>
          <_>
            <!-- node 1 -->
            <feature>
              <rects>
                <_>
                  12 3 2 4 -1.</_>
                <_>
                  13 3 1 4 2.</_></rects>
              <tilted>0</tilted></feature>
            <threshold>3.5273039247840643e-04</threshold>
            <left_val>-5.9432381391525269e-01</left_val>
            <right_val>6.3311797380447388e-01</right_val></_></_>
        <_>
          <!-- tree 2 -->
          <_>
            <!-- root node -->
            <feature>
              <rects>
                <_>
                  11 0 3 1 -1.</_>
                <_>
                  12 0 1 1 3.</_></rects>
              <tilted>0</tilted></feature>
            <threshold>2.4228200782090425e-03</threshold>
            <left_node>1</left_node>
            <right_val>-4.2600348591804504e-01</right_val></_>
          <_>
            <!-- node 1 -->
            <feature>
              <rects>
                <_>
                  9 3 4 2 -1.</_>
                <_>
                  9 3 2 1 2.</_>
                <_>
                  11 4 2 1 2.</_></rects>
              <tilted>0</tilted></feature>
            <threshold>-6.8298168480396271e-03</threshold>
            <left_val>-9.6034550666809082e-01</left_val>
            <right_val>2.0651890337467194e-01</right_val></_></_>
        <_>
          <!-- tree 3 -->
          <_>
            <!-- root node -->
            <feature>
              <rects>
                <_>
                  1 1 16 1 -1.</_>
                <_>
                  5 1 8 1 2.</_></rects>
              <tilted>0</tilted></feature>
            <threshold>4.3191891163587570e-02</threshold>
            <left_node>1</left_node>
            <right_val>7.7711832523345947e-01</right_val></_>
          <_>
            <!-- node 1 -->
            <feature>
              <rects>
                <_>
                  2 2 10 6 -1.</_>
                <_>
                  2 5 10 3 2.</_></rects>
              <tilted>0</tilted></feature>
            <threshold>6.7875750362873077e-02</threshold>
            <left_val>-1.3212099671363831e-01</left_val>
            <right_val>7.2220957279205322e-01</right_val></_></_>
        <_>
          <!-- tree 4 -->
          <_>
            <!-- root node -->
            <feature>
              <rects>
                <_>
                  2 2 4 8 -1.</_>
                <_>
                  2 2 2 4 2.</_>
                <_>
                  4 6 2 4 2.</_></rects>
              <tilted>0</tilted></feature>
            <threshold>1.1820830404758453e-03</threshold>
            <left_node>1</left_node>
            <right_val>3.4229829907417297e-01</right_val></_>
          <_>
            <!-- node 1 -->
            <feature>
              <rects>
                <_>
                  4 4 5 6 -1.</_>
                <_>
                  4 6 5 2 3.</_></rects>
              <tilted>0</tilted></feature>
            <threshold>-2.2793740034103394e-02</threshold>
            <left_val>1.5560610592365265e-01</left_val>
            <right_val>-5.1311320066452026e-01</right_val></_></_>
        <_>
          <!-- tree 5 -->
          <_>
            <!-- root node -->
            <feature>
              <rects>
                <_>
                  16 5 4 3 -1.</_>
                <_>
                  16 6 4 1 3.</_></rects>
              <tilted>0</tilted></feature>
            <threshold>2.0784290973097086e-03</threshold>
            <left_node>1</left_node>
            <right_val>-3.6970210075378418e-01</right_val></_>
          <_>
            <!-- node 1 -->
            <feature>
              <rects>
                <_>
                  9 8 4 2 -1.</_>
                <_>
                  10 8 2 2 2.</_></rects>
              <tilted>0</tilted></feature>
            <threshold>1.7857879865914583e-03</threshold>
            <left_val>2.4954010546207428e-01</left_val>
            <right_val>-4.5003730058670044e-01</right_val></_></_>
        <_>
          <!-- tree 6 -->
          <_>
            <!-- root node -->
            <feature>
              <rects>
                <_>
                  8 3 4 6 -1.</_>
                <_>
                  10 3 2 6 2.</_></rects>
              <tilted>0</tilted></feature>
            <threshold>-4.2462218552827835e-03</threshold>
            <left_node>1</left_node>
            <right_val>4.0973898768424988e-01</right_val></_>
          <_>
            <!-- node 1 -->
            <feature>
              <rects>
                <_>
                  10 1 4 4 -1.</_>
                <_>
                  10 1 4 2 2.</_></rects>
              <tilted>1</tilted></feature>
            <threshold>-5.8571878820657730e-02</threshold>
            <left_val>6.4449071884155273e-01</left_val>
            <right_val>-3.0423280596733093e-01</right_val></_></_>
        <_>
          <!-- tree 7 -->
          <_>
            <!-- root node -->
            <feature>
              <rects>
                <_>
                  11 2 2 2 -1.</_>
                <_>
                  11 2 1 2 2.</_></rects>
              <tilted>1</tilted></feature>
            <threshold>4.6110129915177822e-03</threshold>
            <left_val>-2.7264401316642761e-01</left_val>
            <right_node>1</right_node></_>
          <_>
            <!-- node 1 -->
            <feature>
              <rects>
                <_>
                  0 2 20 8 -1.</_>
                <_>
                  5 2 10 8 2.</_></rects>
              <tilted>0</tilted></feature>
            <threshold>-4.2027148604393005e-01</threshold>
            <left_val>4.3452680110931396e-01</left_val>
            <right_val>-4.6987149119377136e-01</right_val></_></_>
        <_>
          <!-- tree 8 -->
          <_>
            <!-- root node -->
            <feature>
              <rects>
                <_>
                  18 0 2 2 -1.</_>
                <_>
                  18 0 1 2 2.</_></rects>
              <tilted>1</tilted></feature>
            <threshold>-4.9290497554466128e-04</threshold>
            <left_node>1</left_node>
            <right_val>2.5740489363670349e-01</right_val></_>
          <_>
            <!-- node 1 -->
            <feature>
              <rects>
                <_>
                  2 0 8 8 -1.</_>
                <_>
                  2 2 8 4 2.</_></rects>
              <tilted>0</tilted></feature>
            <threshold>1.0078780353069305e-02</threshold>
            <left_val>-4.0109080076217651e-01</left_val>
            <right_val>8.2035201787948608e-01</right_val></_></_>
        <_>
          <!-- tree 9 -->
          <_>
            <!-- root node -->
            <feature>
              <rects>
                <_>
                  15 5 1 2 -1.</_>
                <_>
                  15 6 1 1 2.</_></rects>
              <tilted>0</tilted></feature>
            <threshold>8.6460652528330684e-04</threshold>
            <left_node>1</left_node>
            <right_val>3.5283899307250977e-01</right_val></_>
          <_>
            <!-- node 1 -->
            <feature>
              <rects>
                <_>
                  13 6 2 1 -1.</_>
                <_>
                  14 6 1 1 2.</_></rects>
              <tilted>0</tilted></feature>
            <threshold>-2.3064240813255310e-03</threshold>
            <left_val>8.8940322399139404e-01</left_val>
            <right_val>-2.8111711144447327e-01</right_val></_></_>
        <_>
          <!-- tree 10 -->
          <_>
            <!-- root node -->
            <feature>
              <rects>
                <_>
                  8 1 3 4 -1.</_>
                <_>
                  9 1 1 4 3.</_></rects>
              <tilted>0</tilted></feature>
            <threshold>-5.3173629567027092e-03</threshold>
            <left_node>1</left_node>
            <right_val>1.7417919635772705e-01</right_val></_>
          <_>
            <!-- node 1 -->
            <feature>
              <rects>
                <_>
                  5 2 4 3 -1.</_>
                <_>
                  5 2 2 3 2.</_></rects>
              <tilted>1</tilted></feature>
            <threshold>-1.6172930598258972e-02</threshold>
            <left_val>6.7323678731918335e-01</left_val>
            <right_val>-5.8163589239120483e-01</right_val></_></_>
        <_>
          <!-- tree 11 -->
          <_>
            <!-- root node -->
            <feature>
              <rects>
                <_>
                  7 1 10 2 -1.</_>
                <_>
                  7 1 5 1 2.</_>
                <_>
                  12 2 5 1 2.</_></rects>
              <tilted>0</tilted></feature>
            <threshold>3.6983469035476446e-03</threshold>
            <left_val>-2.8855049610137939e-01</left_val>
            <right_node>1</right_node></_>
          <_>
            <!-- node 1 -->
            <feature>
              <rects>
                <_>
                  2 5 8 4 -1.</_>
                <_>
                  2 6 8 2 2.</_></rects>
              <tilted>0</tilted></feature>
            <threshold>-4.5902109704911709e-03</threshold>
            <left_val>-8.1358171999454498e-02</left_val>
            <right_val>6.6813170909881592e-01</right_val></_></_>
        <_>
          <!-- tree 12 -->
          <_>
            <!-- root node -->
            <feature>
              <rects>
                <_>
                  3 4 8 6 -1.</_>
                <_>
                  3 6 8 2 3.</_></rects>
              <tilted>0</tilted></feature>
            <threshold>-5.6396089494228363e-02</threshold>
            <left_node>1</left_node>
            <right_val>-1.8028970062732697e-01</right_val></_>
          <_>
            <!-- node 1 -->
            <feature>
              <rects>
                <_>
                  9 7 3 3 -1.</_>
                <_>
                  10 8 1 1 9.</_></rects>
              <tilted>0</tilted></feature>
            <threshold>1.5417469665408134e-02</threshold>
            <left_val>5.7701408863067627e-01</left_val>
            <right_val>-7.0151948928833008e-01</right_val></_></_></trees>
      <stage_threshold>-8.6931401491165161e-01</stage_threshold>
      <parent>7</parent>
      <next>-1</next></_></stages></haarcascade_3_1>
</opencv_storage>
